<?xml version="1.0"?>
<opencv_storage>
<stage14>
  <maxWeakCount>5</maxWeakCount>
  <stageThreshold>-1.0109267234802246e+00</stageThreshold>
  <weakClassifiers>
    <_>
      <internalNodes>
        0 -1 47325 487262671 -753296933 269943031 -109641197 -242370049
        -543674131 -1399260934 -366278654</internalNodes>
      <leafValues>
        -6.5610861778259277e-01 4.8872181773185730e-01</leafValues></_>
    <_>
      <internalNodes>
        0 -1 6684 -1372312642 216937991 1935058054 -1129398822
        -207379557 -2002080758 -1111443573 -1095194935</internalNodes>
      <leafValues>
        -7.6181590557098389e-01 3.9233455061912537e-01</leafValues></_>
    <_>
      <internalNodes>
        0 -1 2319 -1881211969 -974421489 160024771 -66076660 1403258353
        13762727 1074000743 -152867897</internalNodes>
      <leafValues>
        -5.7602858543395996e-01 5.2859699726104736e-01</leafValues></_>
    <_>
      <internalNodes>
        0 -1 31740 1427359213 -106126053 -1996434019 -45246052 137209339
        -151856721 -108410337 13434886</internalNodes>
      <leafValues>
        -6.9934028387069702e-01 4.9582886695861816e-01</leafValues></_>
    <_>
      <internalNodes>
        0 -1 48798 -1074058945 -2045382951 -1873073841 -1370107171
        335754042 2030172166 -1022248216 -290473522</internalNodes>
      <leafValues>
        -5.7640939950942993e-01 5.8768808841705322e-01</leafValues></_></weakClassifiers></stage14>
</opencv_storage>
